Language model created by QuickLM on Sun Jan 28 12:42:34 EST 2018
Copyright (c) 1996-2010 Carnegie Mellon University and Alexander I. Rudnicky

The model is in standard ARPA format, designed by Doug Paul while he was at MITRE.

The code that was used to produce this language model is available in Open Source.
Please visit http://www.speech.cs.cmu.edu/tools/ for more information

The (fixed) discount mass is 0.5. The backoffs are computed using the ratio method.
This model based on a corpus of 14 sentences and 19 words

\data\
ngram 1=19
ngram 2=31
ngram 3=20

\1-grams:
-0.8539 </s> -0.3010
-0.8539 <s> -0.2355
-2.0000 BLUE -0.2355
-2.0000 BRIGHT -0.2355
-2.0000 DARK -0.2355
-2.0000 FRIEND -0.2355
-2.0000 GREEN -0.2355
-1.5229 LIGHT -0.2355
-2.0000 MAKE -0.2878
-2.0000 OFF -0.2878
-2.0000 ON -0.2878
-2.0000 ORANGE -0.2355
-2.0000 PINK -0.2355
-2.0000 PURPLE -0.2355
-2.0000 RED -0.2355
-1.5229 THE -0.2878
-1.6990 TURN -0.2923
-2.0000 WHITE -0.2355
-2.0000 YELLOW -0.2355

\2-grams:
-1.4472 <s> BLUE 0.0000
-1.4472 <s> BRIGHT 0.0000
-1.4472 <s> DARK 0.0000
-1.4472 <s> FRIEND 0.0000
-1.4472 <s> GREEN 0.0000
-1.4472 <s> MAKE 0.0000
-1.4472 <s> ORANGE 0.0000
-1.4472 <s> PINK 0.0000
-1.4472 <s> PURPLE 0.0000
-1.4472 <s> RED 0.0000
-1.1461 <s> TURN 0.0000
-1.4472 <s> WHITE 0.0000
-1.4472 <s> YELLOW 0.0000
-0.3010 BLUE </s> -0.3010
-0.3010 BRIGHT </s> -0.3010
-0.3010 DARK </s> -0.3010
-0.3010 FRIEND </s> -0.3010
-0.3010 GREEN </s> -0.3010
-0.3010 LIGHT </s> -0.3010
-0.3010 MAKE THE 0.0000
-0.3010 OFF THE 0.0000
-0.3010 ON THE 0.0000
-0.3010 ORANGE </s> -0.3010
-0.3010 PINK </s> -0.3010
-0.3010 PURPLE </s> -0.3010
-0.3010 RED </s> -0.3010
-0.3010 THE LIGHT 0.0000
-0.6021 TURN OFF 0.0000
-0.6021 TURN ON 0.0000
-0.3010 WHITE </s> -0.3010
-0.3010 YELLOW </s> -0.3010

\3-grams:
-0.3010 <s> BLUE </s>
-0.3010 <s> BRIGHT </s>
-0.3010 <s> DARK </s>
-0.3010 <s> FRIEND </s>
-0.3010 <s> GREEN </s>
-0.3010 <s> MAKE THE
-0.3010 <s> ORANGE </s>
-0.3010 <s> PINK </s>
-0.3010 <s> PURPLE </s>
-0.3010 <s> RED </s>
-0.6021 <s> TURN OFF
-0.6021 <s> TURN ON
-0.3010 <s> WHITE </s>
-0.3010 <s> YELLOW </s>
-0.3010 MAKE THE LIGHT
-0.3010 OFF THE LIGHT
-0.3010 ON THE LIGHT
-0.3010 THE LIGHT </s>
-0.3010 TURN OFF THE
-0.3010 TURN ON THE

\end\
